0.2092974246673522
-0.14281746250500338
0.3101797351831681
0.22819438029276853
-0.10118221123919072
-0.03528617544765272
-0.3457419037908933
0.3267275153319566
-0.024170541226667102
-0.09192978845957428
0.32418526789068547
-0.11927880998036626
-0.2723306655943697
0.0540047830467353
-0.029656432544410544
-0.20934289204206893
-0.13371876634034896
0.10975940035487314
0.2766150522850847
0.09975505450941423
0.3774150544410673
-0.060194845771072356
0.13034442047900252
0.14313725487146411
0.18335763393530738
0.17504288411730645
-0.3358807297496102
-0.22199740782324506
-0.11887608356832023
0.20839200161654317
0.07725126500162356
-0.17125773229686916
0.12207321255529997
-0.1643223660110715
0.11654909971147723
0.06679517736112871
0.09169494861063983
-0.32114581391497593
0.28076397314211743
0.10508921264501751
-0.10747730148618244
0.43276367646822045
0.08760158501423126
0.14905144500551032
0.193620884159543
0.14877920450643647
-0.44959553478324665
0.18872397975145788
0.009657447290904364
0.14192787748865415
-0.030498443128585795
0.06176644010444746
0.043007922167649815
0.013516126182906861
-0.032693185857790644
-0.07897890447109547
-0.03747461244111228
-0.04803713141466599
0.04031712625879877
-0.01881570264382845
0.036072026423932826
0.037734978524862677
-0.10100208577323859
0.006510940692748729
-0.0028165847597543953
-0.05695305196323859
0.03802545818550107
0.02561503455550525
0.02386321671184955
0.041403585074998986
0.018757724537286937
0.007806611371391073
0.010226901748037594
0.036395866047135975
0.021836523617531335
-0.03956676472879885
0.018335608855603317
-0.03178979994784287
0.057914717002105806
0.02825809965602608
0.10601614046742974
-0.08141099931552992
0.02812852903361447
0.22503837325518658
-0.07234074049215482
-0.11607743477813229
0.04243095765103243
-0.053896476862537956
0.09982836134997082
0.02570727608616908
-0.010850389364533846
-0.02735499880296585
0.11060561580387396
0.04250825724768245
-0.028382827530025318
-0.18626140144822495
0.1835893375062422
-0.03818532679559978
0.1842292914557207
0.12194378143376668
-0.19224844376568254
-0.008561383915676958
0.036440701866029955
-0.07900460272704683
0.04475708889848219
0.3259460999954989
0.13120627493475145
-0.033858973883984955
0.10496497667812232
0.128983182833716
-0.23000237645820312
-0.01083505349412199
0.00904593595411215
-0.1194913887248353
0.143857126369399
-0.07151433014665075
0.03648068662201097
0.06999795804664243
0.1142757675785676
0.03695618250059326
0.06945659071770034
0.07693559609763155
-0.1076863520140829
0.0072110623712019995
-0.10381862931249448
0.08914567771717946
0.08158076748531207
0.166779773652744
0.015911489714883122
-0.10786103235876052
-0.04536297229409302
0.04358632061079223
-0.048299573231424066
-0.06561285697078288
0.1798125261253135
-0.12862630691620103
0.20396197377824804
-0.04389361713209043
0.008190334147251767
0.038333551850864477
-0.03514233986746722
0.08834610490086875
-0.12152460651822541
-0.09514031811326279
-0.1787919243223443
-0.09663691128033271
-0.0019549574463181476
-0.02016484834149428
0.14701791040353887
-0.05931821615793826
-0.09931803267467854
0.06443466791493618
0.20275608400363357
-0.03359847474217135
0.08968641254482822
-0.08616643853210214
-0.18243718582532198
0.11000515676365517
-0.06339025354627946
-0.042669568040336656
-0.08365089399942637
-0.09942842706543967
0.0607114148471344
0.08953197459461847
-0.026521538704395078
0.12955170665923305
0.16702707652106735
-0.053577941822048135
0.01206419518933918
-0.11920564874148865
-0.16389674564450255
-0.20251607649841238
0.07364616037548974
0.04542813585530556
0.16076132596052628
0.13463188035521415
-0.07837390229286616
0.011193505101903527
0.08232808162225004
-0.21990930257879507
-0.15016142321672554
-0.20158495898286774
-0.036666941383075115
0.034313964582519264
-0.09820093820699602
0.2034748465426771
-0.1439145104964332
-0.027349807440460873
0.013605624563579685
0.024000712695707867
0.04633397859579112
-0.010243584379104113
-0.0934531052340568
-0.031777071983497635
0.03999607011062856
-0.10746624990523752
-0.1628426853934769
-0.09177741821500635
0.27304267898429224
-0.15557674031736374
0.13354050805625403
-0.2079419611037776
0.24228006052383766
-0.023002643663948955
-0.1582297564725268
-0.16307037956729917
-0.032697039761948245
0.1295390560624771
-0.35125427710918206
0.03208073542972779
0.10344622449788762
0.15172237522749707
0.10783399632031537
0.09324574369422349
0.19691516154649535
0.19478188790992215
-0.052409450268020095
-0.06078006710096331
-0.19618421923460092
-0.027559196586011563
-0.04944979794916176
0.06870688575325733
-0.06504698928335671
-0.06618564424300373
0.06939900899208705
0.016963630883288495
-0.07123592209874349
-0.04171405634574206
0.006472456859455939
0.12342667293841744
0.03890652647022336
0.018840655004904477
-0.05619999134794796
-0.24234244956730777
-0.0567960684355005
0.12277899029251424
0.038051479834724906
0.10607612781853511
-0.07338394285897576
0.022549348696118125
-0.08135967678870552
0.0382117584011425
0.10668389334402166
0.2655851639937099
-0.050793936852325305
-0.0016570000464558288
-0.06656494880694853
0.19735858429374656
0.14000958932633417
0.19925235161783253
-0.13378045088592824
0.015198634675289138
0.03577463406232217
0.07795062271799662
-0.20937618396050636
0.06274354848707671
-0.018523650081116207
-0.07215900119844477
-0.15809503147866724
0.09947330672320262
-0.02036860635723861
0.1560221965444335
-0.1890932299614792
0.29189454609884313
-0.15583382430183765
-0.14798918125921032
0.11878939047220381
-0.0024369868625334014
0.10416557862479574
-0.13613949385883464
0.002013781157615672
0.05029172447989482
0.019896999536362172
0.09332761560183066
-0.08385192585485514
-0.019115485911439523
0.06877397298391792
-0.16499006434576813
-0.13772334701650196
0.04101759612225854
-0.11125819868581685
0.14711750173558588
-0.055579167671106613
-0.08438270102172897
-0.2119849241271808
-0.11855753116396275
-0.13935956016183826
0.045999570781032305
-0.04178255651430353
0.004202151226875074
-0.023172963056552538
-0.04843245766438887
-0.0821267342772222
-0.15233186078622998
0.0797475169805308
-0.016614860598567514
-0.03887170565241144
0.1473701607059645
-0.06548185196139218
-0.09115958750804876
0.2145545642201691
0.22348113577025047
0.05207153960230659
0.09073333026030067
-0.023398036334505636
-0.2033411683034663
-0.006651941345604066
0.0037710314990983063
0.04655837569213116
-0.1363942889116781
0.023075904215652455
-0.027361182535176203
0.07450286181065993
0.06568164627433977
-0.020201508197256333
-0.0798671977584337
0.020557409551050263
0.051138177511752154
-0.27970853886758007
-0.08500640096957608
0.2200167881947454
0.12039493830015212
-0.13207008264294984
-0.09984258404113786
0.001753719651028081
-0.08352543500971767
-0.14095386808837995
-0.18135060660440136
0.002932903889725756
0.06232906110987497
0.015649430893769196
-0.15957234233314777
-0.014038222584964646
0.1904334550906226
-0.09314694778875107
-0.041643932712293885
-0.10605060512284227
0.19174796005738426
0.009186979438396407
0.1266072648594041
-0.03176730417273388
-0.00889174220064971
-0.08056123672742484
0.11997516699529036
-0.09375679233953986
-0.07098309095072962
0.09229171665205003
0.3707442315664668
-0.21461000491798896
0.009209809828822404
-0.02241449173327638
-0.05936875860127774
-0.22083275178939263
-0.20138029021449558
0.20955573878493522
-0.11787506351561819
0.19628934416020913
-0.1210486997991761
-0.20249052524994687
0.04377713332677578
0.18510140886961687
0.14119859101506296
-0.22083567404876062
-0.10592620852954916
-0.12820115365328902
-0.10559819043702481
0.16951541239283152
0.036986604847918464
-0.11063475569308431
-0.07095246213379335
0.07597584016300073
0.010400248142905329
-0.3781325719355043
-0.2675935162156289
0.002022200614216425
-0.1962885141916809
-0.12713268846386558
-0.09666380930924619
0.1134279275064956
-0.018494802303164262
-0.26654703387534073
-0.0974482730422369
-0.11952204844820966
0.05642691272797163
0.050639188374236026
0.2935073982088046
-0.07550887010150455
-0.14857646695362248
-0.2825030980313853
-0.11912029064840968
0.011576415452501786
-0.20051016554045986
-0.013186524148407262
0.05877758228383577
-0.1992559506007154
0.014516815670201433
0.045556268854609956
-0.23796163334043516
0.13013732621807442
0.22555562572880697
0.11894654398593699
0.21996603106411616
0.0642879970511669
-0.004039190728333644
0.02171437810923583
0.18534635752565248
-0.06547959716012931
-0.3057727561136073
-0.08831628654859412
-0.013560774927035115
0.11953345622148805
3.634049250455374E-4
-0.2051723950838062
-0.2712791578602423
-0.0634894107635224
-0.06379629486601202
0.2552613788959274
-0.06858807717881134
0.017272196407099778
0.16811166641165257
-0.07610877681955572
-0.16301950085496247
0.05459064091184857
-0.14620120607512463
0.11698896639283642
0.07855513086240039
0.3800070859128264
-0.09620235830015912
-0.15456470739935915
0.256013341313657
-0.13941490548430474
-0.37125536289350697
-0.42701620125058565
-0.3642713412499954
0.24734225885232086
-0.0339336872893294
0.24737858082966188
-0.022015302730735046
-0.17356959867934163
0.1694515711895778
0.026767195666285454
-0.019884060829571355
0.2969673550624842
-0.08001436714506817
0.09118375563768805
0.1168781408896186
-0.024069751636997202
-0.012706624646948876
0.1937327949463492
-0.03208391631435199
0.024525361057167502
-0.09572866566999519
0.1506693301220776
0.5006111346412979
-0.18615786051696906
-0.041628771171102585
-0.06912235335582179
0.014591533605796186
-0.02463136095506946
0.11858985568554413
-0.23749982933929223
-0.11809701745377134
0.027527634018261967
-0.3904681603896177
0.067079732650765
0.22889412927669173
-0.19656862228651947
-0.12233192429124738
0.2004440324381698
-0.183393337504223
0.37856303474189784
0.21242368736189451
0.13681557611177192
-0.07823580340505118
0.10303278451572505
-0.08807550344751454
0.14915238900108124
0.1832613687480279
0.02990450813320742
-0.11542833277375605
0.03022503498792883
-0.04281796012969147
0.03247847004745942
0.08697866811721891
-0.20536226412228642
0.03361918412450073
-0.04743998265103114
-0.22786611221658826
-0.012634598302691376
0.06405458140872615
-0.03561831319851923
-0.045407142508031295
0.11095413524121807
-0.020871193115650513
0.23902753047626188
0.03582001989727044
0.10270073815289472
0.016042590728668014
-0.1058061950937987
0.04974999437499846
-0.14612984401028548
0.02244032862164266
-0.09922579720220794
-0.06367970410276469
0.17254488377531774
-0.1115382100385056
-0.005061491326110346
-0.06058779374410644
0.11421694687840277
0.09087504520724377
-0.008436462846459039
-0.030563111534480256
-0.03747424016628201
0.07864559761241867
0.100210006732288
-0.17248805208094245
-0.013550660175148048
0.1324365264597026
0.041523825739716115
-0.053694360803648755
-0.06138407450407944
-0.13310339106731245
-0.09935541935513506
-0.08632257758955358
-0.055818982688861984
-0.017442790747999613
0.04320676568816455
-0.06778344688616625
0.2202631893050419
-0.011975492041639621
-0.11907592663617322
-0.19847914997260602
0.1818709735614655
0.008815973577661588
-0.12800862206661445
-0.08621222178324969
0.0424465692321265
0.022964824800202725
-0.10816674138797293
0.012260064501835637
0.06203713783521343
-0.1312032519436346
0.05723396843796168
-0.08930683608248204
-0.01451988070911055
0.18021188483658845
-0.08950190142632518
0.08616249720074046
0.10230174338264085
0.06422624572795697
0.08348823603161647
0.11739542157825261
-0.6662848852904478
0.40461245122652634
3.4435967927447627E-4
-0.4293044444449802
0.4331020413388646
-0.21447310369424966
0.33354084710567056
-0.21327464730515433
0.6075293402537791
0.12765233535883158
0.15220396682059653
-0.11246059419629457
-0.3818526232597244
-0.8210513182448247
-0.28104107396618966
-0.8435349624250458
-0.47823061737832345
0.5360451492591676
-0.16182780702429525
0.17736367744616577
-0.5826219191866066
0.1291777118862825
-0.5614213934034069
-0.6242917063339621
0.034328537443619994
-0.006151192347071251
-0.1026047651853692
