-0.12482047334413665
0.07840582208302871
0.07023831569164073
0.00776496564709321
0.05844405389765497
-0.2401990170371636
-0.42321679641042614
-0.010320479806482244
0.03933112301194172
-0.02056695381510778
0.2440258716193426
-0.020773404975429562
-0.153288699720773
-0.05325788066530203
0.2441072950408376
-0.30008846483224166
-0.11189445386911723
-0.1819223477320491
-0.024498064311021955
0.21381515089988404
0.13017973203730315
-0.21798648262538825
-0.27434554401731753
0.027245671799856406
0.0839748351801773
0.23712562467685927
-0.129457037419161
-0.026351936606226468
0.04381643050635343
0.06685479675971302
0.18183695570917313
0.07330122652242259
0.12516566860270004
0.19657751421020808
-0.17313255209217712
-0.2539002552115409
0.15321598383042628
-0.202399765362966
-0.2980039956126569
-0.20730296307330015
-0.22846771919981698
0.17757880791138822
0.15066232161721113
-0.1641966493115143
-0.14225716041195594
-0.04926231666370666
-0.002436810269485034
0.19530844468163447
0.07436188645747281
0.281367496708414
-0.31214288971650683
0.18287743369765674
0.21899832471804845
-0.03277732061532913
-0.1913536069306959
-0.3099391900596404
-0.16795318960891412
-0.1757199057445736
0.1954957521901075
-0.08234416205602883
0.11790927989350368
-0.013140358938985498
-0.059699970528062696
0.06293562996147467
-0.09680656561362827
-0.1420925741017569
0.026397054825673137
-0.01565645382135166
0.09631021596384155
-0.04069358553300607
-9.86770522983679E-5
-0.06811132648068799
0.09772032896932509
0.14511036173342048
0.036310991476634275
0.02095110258106704
0.06158901271816323
-0.034032290309227116
0.08020016767546828
-0.005006963734704832
0.11040349340851123
-0.07672024171288576
0.005988754402413464
0.19576254911356217
-0.031989035700336774
-0.08466133265424508
0.04038323301485633
-0.05994877625032399
0.1103335534475338
0.03670900654301007
0.014026745505565047
-0.014760256547811908
0.11037397498608002
0.02710024418440468
-0.021925876484420084
-0.08709937344081851
0.15044749229064125
-0.009168163074247516
0.14608066491924998
0.06534185457088701
-0.19293668243759443
-0.004742331702501383
0.09511556444563374
-0.13630124118896314
0.054574319363035154
0.20274061647088137
0.17240731184300073
-0.08820245756336316
0.03478004455755255
0.09437467205911443
-0.16794361237469468
-0.02714320421833514
-0.05965158839570241
-0.1394436513847269
0.14804110473606233
-0.07445597638437554
0.05086857845911143
0.076492351260272
0.15571052530490131
0.05923758929077414
0.10567064209990694
0.011172790287439026
-0.1826129257621289
-0.007346818049947095
-0.04974578057404433
0.12326409375417809
0.08873029904130196
0.17072982989289226
0.030259789573115398
-0.040448714422754016
-0.09790077180031483
0.04979819203120544
-0.05878635084710268
-0.051711934427566636
0.10462626260066914
-0.12196108183275862
0.22775645426406058
-0.011662222554667243
-0.0635301734221861
0.03788488028844466
-0.09141041581214855
0.08740355609218498
-0.08143706281183082
-0.046242665377074235
-0.057684553844268904
-0.11598181477517257
-0.0050993052678977545
-0.02181036215865229
0.09110422680139339
-0.0766004423883728
-0.14681932610660345
0.022613862075708684
0.19202507998947102
0.017357245026044948
0.17729685464063638
-0.06771671916989729
-0.2511803765062101
0.14859534166268554
-0.06588704827081307
-0.003493240949279202
-0.09362954694227446
-0.04787611782563428
0.03570136594590684
0.12719847695899322
-0.044889014363413714
0.11327824991371954
0.04255598164634881
-0.01995525293372138
-0.016458758167043973
-0.06124832192376406
-0.18795434057557892
-0.18400933570701627
0.06442064119972121
0.020022505975012296
0.18494516027725574
0.16241902261547134
-0.12209685449782606
-0.010910435040649605
0.1469693368016477
-0.14562330126078762
-0.14336814047977323
-0.22911855776054155
-0.025274985545184356
0.0694844521065834
-0.07942739495764015
0.21596954911215807
-0.10109103332122943
-0.022799148325431305
-0.03389165608048331
0.025186436338455215
0.04314710064582403
0.0072924114428994675
-0.11865600228954655
-0.013669318726785418
0.048418801226719675
-0.08025989629356994
-0.11734085394684016
-0.01601617920483609
0.17866264224368308
-0.10716390039707062
0.1528625795783069
-0.10820552209054303
0.09368517326942692
3.440246654208374E-4
-0.011063956737094961
-0.11289056172167297
-0.08132887428880972
0.08996215992181064
-0.18591233907799234
0.02524835508660361
0.11266899998962449
0.16292281424802504
0.045233121786908095
0.050882238364298844
0.2033673684685268
0.10119324507731067
-0.07832387364249781
-8.917434464194666E-4
-0.150556682084315
0.03290263689142569
-0.04202132089827699
0.05887279003028639
-0.15768497501596224
-0.019403451907706988
-0.002374403279676357
0.07934921817586722
-0.10667517772997073
0.007422838637341321
0.03394316327907298
0.14791668172675412
-0.04250358642471623
0.09125978289013102
-0.05495340723632458
-0.14872073049957626
-0.16760264765662292
0.14275902449291816
0.08021911288477433
0.08578491449553682
-0.1087995332251645
0.05253310531330557
0.012529777856251038
0.024272396917695813
0.06295243171642016
0.22410665472024097
-0.14078437947020367
0.07559557988621773
-0.08491401503722479
0.1216145987699381
0.08794687439383624
0.08865305893566312
-0.10676582998622423
-0.04777210339882331
0.061303780626783544
-0.008826355868156176
-0.18447940762827325
0.1149222761767976
0.14926859126627498
0.009237791392297266
-0.02833192717238513
0.07198004965757662
-0.06971826808079
0.1179879070984575
-0.07346205486070646
0.20208266288991045
-0.1716591445175532
-0.15817786325815347
0.20932039411387604
-0.03224201058445686
0.05957693784354043
-0.09452275012923819
0.0020336192958806446
-0.01628224501684868
0.08546547147242776
0.08477518595888582
-0.030212552864596207
-0.07235821521235972
0.07003195774627191
-0.14111055578620615
-0.0669673140104022
-0.004487235294432575
-0.10468334390388963
0.20134967641539758
-0.07734929321450823
-0.08940945077025733
-0.11534078688886513
-0.08086052354138815
-0.1560911080962357
-0.002967558522598373
-0.008438341116921778
-0.01763991754911999
0.00981198508418914
-0.028979321401529944
-0.08617898851557594
-0.10296680678728722
0.024412322422323482
0.015019635197313466
-0.04204232149910946
0.08055696728471415
-0.0035731392419365935
-0.14247699101299358
0.21583150887841188
0.269440998012152
0.08843798552573216
-0.001307142579192928
-0.09138376193449733
-0.17105605070048488
-0.022311282575453305
0.06247000281047192
0.05115264304907717
-0.08879878944551746
-0.08458055393198961
0.03565504005517601
0.1056765501538114
0.0707710832737444
-0.04883089864361259
-0.09745405827244535
-0.0544305447140577
0.030015321737739686
-0.2659209372344221
-0.05197545785430829
0.05287379388687565
0.07224143672388997
-0.24486759293920862
-0.07172864008574101
0.08267211490144934
-0.10868537307287993
-0.1477365467680159
-0.15050782564516824
0.04440669992011453
0.03745041853873864
0.015378122949895531
-0.12281898900629114
-0.04711328351854794
0.13435446140671034
-0.04001840615825731
-0.024237135307959713
-0.09146381370966096
0.13784717460536117
-0.03204956284243264
0.0975160139877064
-0.047156280344227024
0.02022228730344504
-0.08257070386574358
0.08546907600864008
-0.11468577685349379
-0.056190128334802955
0.06296453912544461
0.3752382376754731
-0.11229604586855355
0.030179481699754807
-0.03549903089716277
-0.11774306619782314
-0.0029837375406749768
-0.0173517501766882
0.008296695716901946
-0.11021206522560743
0.19044165053067624
-0.12906032323088226
-0.07501775660926686
0.06293660877042727
0.09383447964154688
0.07319365435434604
-0.1459766373554793
-0.13132066039387685
-0.08388437751051021
-0.04068650855587467
0.14595830150164738
0.0974492686218111
4.723740186666137E-4
-0.016437810179834318
-0.04984335612733521
-0.024918498394594344
-0.25481413366732625
-0.1657062947396796
0.05038282939508758
-0.10406397187288415
-0.03794166979964683
-0.05880218285108109
0.014684935660502765
-0.08787440456971349
-0.10772694636936977
0.024845640324574304
-0.06514270785346678
0.12194393494693478
-0.06263182827076007
0.17588000390053826
-0.013283168605906337
-0.19875593656140636
-0.1111001681870849
-0.04962352439321756
-0.009832371481974725
-0.07172828127769358
-0.038176250355858234
0.023290461606103062
-0.11834926503884734
0.01272761645806022
0.020369939381890922
-0.23058203965728585
-0.0020569232041324943
0.07299877540254834
-0.022835861934467586
0.1753056645306353
0.09504104720401375
0.05878574317110339
-0.01948287386460083
-0.021762324744252295
-0.07681471868985705
-0.25418140443112464
-0.027561914424048338
0.010364838933647846
0.0706130491258792
-0.035196652209204905
-0.06795068256153586
-0.13800188625148674
-0.008694606399035966
-0.027271613698834365
0.17831083040930498
-0.16658732762588654
0.10360014373513168
0.1498812434772874
0.05558659962895827
-0.07496388983711548
0.014240730266174303
-0.12382008598884361
0.03625548063235989
0.030333416377194593
0.3166633188900409
-0.07166842414480994
-0.05717395742488915
0.09458240873232282
-0.001652532210330366
-0.11709828336319028
-0.17525802800061183
-0.1525907829383628
0.0676778465920013
0.048012215900820665
0.11479715853827534
0.07470290068458678
-0.06936473675996395
0.03822084007448974
0.07650639747879272
0.03430575303372368
0.2514404361344949
-0.009559846216572049
3.205471780393649E-4
0.06976310603570919
0.02642182371255282
0.006840727669345378
0.0490850450356672
-0.09027901926947401
-8.183517549921028E-4
-0.01300360346723719
0.05265987256364448
0.2079992672636039
-0.13666774495884607
0.11244669399426307
-0.08818545334411146
-0.037022038902218356
-0.10862908946877989
0.0685171251440593
-0.04475288117906736
-0.1433553686582942
0.11142731239348098
-0.21204411977933046
0.020777763054134656
0.1559512571801768
0.023922929683498323
-0.16025344278573558
0.07466253635980541
-0.14219607009575627
0.1778515295485434
-0.022622770762548816
0.04965538511845862
-0.11556860183955556
0.10135940266952706
-0.018133390260570453
0.11360953018723913
0.10098526612375923
0.10291442990562374
-0.018411522159033005
0.020461234595742173
0.005970426810976592
0.06427676811639019
0.07882325675438975
-0.22976004021024143
0.004874754362599984
-0.021301933528418745
-0.22924403962846077
-0.07906288493062454
0.06899085350919502
-0.017249183152354915
-0.015215663569909606
0.13866241982563185
0.03000971949771133
0.25841112371834396
0.13280542108345095
0.07038878071574811
-0.0031401741959207734
-0.06355390609694216
0.035415823879407865
-0.10024254519092511
0.04164080410159495
-0.05402582868598502
0.03103302791771962
0.15584240837863897
-0.13212298636923694
-0.03075946925072787
-0.04934787197382385
0.06345021215397885
0.07775784667694663
-0.03998900484589918
-0.08715728313766155
-0.029632804542819247
0.06741570712345911
0.09828384119405553
-0.18763823464785911
-0.029960006601001933
0.06349525855969636
0.07917434084739261
-0.04637306553764487
-0.11717937075257372
0.016524055464674565
-0.1908689601828075
0.04817069200162365
-0.1680437002389305
0.2098649956168251
0.038959758490310144
-0.2781313893693734
0.1657623968390567
9.463978350963088E-4
-0.0430885145277831
-0.13880634544436413
0.13919358058916845
0.10988417239875732
-0.2738989564269938
-0.2903042334095862
0.1761794479437815
-0.09029488819736246
-0.4285546792341287
-0.174142314607502
0.08833310084495764
-0.1721151510841728
0.1446101762907203
0.18686472303754764
0.00913877162760835
0.13913610034011573
-0.027058403539246767
0.009141183576303768
0.09107757914902337
0.16484854730638385
0.23606639308681368
0.1927646500136737
-0.34026070471055964
0.0605114981139824
0.11464081823804723
0.09233108872973282
-0.03291388440670586
0.07749508803776231
0.3226279384991365
0.0018594085772268396
0.23520598506755194
-0.012465052938788544
0.32479297119186307
-0.23337266492901426
-0.12996532983771522
-0.31671948283373114
-0.34955735727992504
-0.381147500524042
-0.16293443320878584
0.14555100718486974
-0.19449343530815036
-0.2208112220657507
-0.24579117352462013
-0.18421635519467866
0.020124821548499202
-0.38659818700924115
0.11999471069766689
0.126703648919361
-0.18312667135524893
-0.08481974578550551
0.04715270725609194
0.12298177534860198
0.11514118572406545
