0.014115907833078006
0.04346588858045114
0.11384720144986948
-0.013297468645923348
-0.06052515488113404
-0.10925502698112702
-0.15493984941059194
0.11872963200871062
-0.015145391010159158
-0.06971633253209535
0.08761968511193863
-0.08032268372366419
-0.15520086348250595
-0.08042846205434584
0.045149551719772495
-0.07704968783556346
-0.011090754090191684
-0.039638267116713755
0.004943918679104854
0.09552660918277187
0.14009582749098615
-0.06023770816737989
-0.08639988638561116
0.050486126777582366
0.025483046285227164
0.10267057443578616
-0.07231945052469563
-0.13598979025150715
-0.052639495200588554
-0.02109262039385939
0.0866944871667357
-0.04215272653962146
0.08626691204560681
0.04279885331077227
-0.029888187887989137
-0.05610278132386706
0.05420508420514322
-0.059718101777220894
-0.017489257989954318
-0.09340950245882138
-0.11004747870553451
0.026669152517786655
0.03302941862966257
-0.06373414659978884
0.050719762095196144
0.013836707400730688
-0.09731372997704024
0.06906824662493687
0.10772665105891631
0.16172830499108207
-0.12825165282915052
0.11777939045236072
0.007029650310896297
-0.0325620823980921
-0.1248933041322391
-0.10548025105777149
-0.08922173116064631
-0.06086029061759422
0.1562334936950446
-0.06401737746552291
0.12482125784223927
-0.008088939350617896
-0.1276890336809515
0.07425385443541266
-0.13233100273472975
-0.12076978791279326
0.050339277553707644
0.027616641371222096
0.12600946052006587
-0.046218851179640495
0.029852696050978695
-0.08745262966192245
0.10729636456870588
0.1796370156081603
-9.232383675224166E-4
-0.035673118287587985
0.07428988567554962
-0.0024326453165983935
0.06411978358288882
0.021763355334465342
0.10601614046742974
-0.08141099931552992
0.02812852903361447
0.22503837325518658
-0.07234074049215482
-0.11607743477813229
0.04243095765103243
-0.053896476862537956
0.09982836134997082
0.02570727608616908
-0.010850389364533846
-0.02735499880296585
0.11060561580387396
0.04250825724768245
-0.028382827530025318
-0.18626140144822495
0.15761856051388354
-0.0010409494170548815
0.18830875348693005
0.0938690693545442
-0.19293668243759443
-0.004742331702501383
0.09511556444563374
-0.13630124118896314
0.054574319363035154
0.20274061647088137
0.17240731184300073
-0.08820245756336316
0.03478004455755255
0.09437467205911443
-0.16794361237469468
-0.02714320421833514
-0.05965158839570241
-0.1394436513847269
0.14804110473606233
-0.07445597638437554
0.05086857845911143
0.076492351260272
0.15571052530490131
0.05923758929077414
0.0757604093912065
0.03715704348517993
-0.14644350207904655
-0.0072775161926176175
-0.06413265340241868
0.08619197696422698
0.0702694973250295
0.14476897844316702
0.015451548372889682
-0.05668289701181033
-0.0934016435090763
0.024854023546141208
-0.05175441461090872
-0.060851128101166885
0.13405173125803002
-0.1326003314865785
0.20048486256279868
0.0045451071837887295
-0.0199595590824814
0.06476226577643268
-0.058108196843575335
0.07270364470681458
-0.11836865582402814
-0.04055779526812035
-0.03995503091225108
-0.09251435888709197
0.0037898296207048185
-0.006332517332815722
0.10339888559633359
-0.0681547828164844
-0.1443349025393195
0.038918240104196644
0.17804940918465584
0.01968224813396874
0.16534083379350048
-0.060163830360289765
-0.23390785784519702
0.13854958759021174
-0.09301856750452181
-0.013782161177965374
-0.08349633045895909
-0.09366656061665027
0.014222401253477688
0.12231026838304532
-0.033355380667372106
0.15588391888002204
0.050850240336962615
0.001981813640430241
-3.062252973640065E-4
-0.05605463948424203
-0.1834042940161957
-0.1724490565220742
0.06064824712391495
0.04625780514417252
0.15114681914190253
0.17614797739726715
-0.08355089117336761
-0.014837121022596942
0.09772823499782957
-0.1837787881223586
-0.15275706163215555
-0.22421013037676285
-0.0183567305380037
0.06812953590154795
-0.09594289695251992
0.20513399705261268
-0.10983982354710085
-0.01736423539118274
-0.03554001714436089
0.02957533700269818
0.03182835114706176
0.00981582298483769
-0.10293229127391952
-0.006680883542321022
0.04302647673612525
-0.13425937691655118
-0.12595690915895172
-0.032686680336373584
0.18826568291109677
-0.10675765740526309
0.14476373473564483
-0.0974279712357407
0.12159543800517772
-0.0066654820009420315
-0.0251716664676306
-0.11155862211469397
-0.05537695843449343
0.09156372900215685
-0.20091357609080737
0.01731430181569751
0.10296102924336473
0.14950188008586227
0.052252959349919775
0.04004391300537609
0.19687573837709677
0.14086135874231348
-0.08129444241449255
0.024322704456359104
-0.13607548114326337
0.02805759753666008
-0.07331010364687728
0.07896452464480286
-0.12424225968651491
-0.01778612318916317
0.003967379283925001
0.04251100939298095
-0.1352767745678962
-0.03288527897132501
0.02328300267869776
0.14145731174844786
-0.03676801458004166
0.08253353194489244
-0.057372540430172404
-0.16368055587822775
-0.12468739486431726
0.16295589198064084
0.05521350809852327
0.08866370787815024
-0.07667196085450811
0.07794281901641115
-0.02993643861485089
0.022753365977582873
0.03697635964503099
0.22017466562541094
-0.1187797471694223
0.052613996969002055
-0.15255666103465215
0.1114950809554171
0.11176610974101082
0.12446956000732415
-0.08296484227568701
-0.006475825865067172
0.08053479848368429
0.01673502071851121
-0.1614574152215768
0.03256180757975216
0.13256518037241866
-0.061967078074830664
-0.06855724784055654
0.08088509293626418
-0.04038344846475342
0.11807159280444901
-0.10419745602294446
0.21137270887913728
-0.15914944273783926
-0.15431589359573644
0.21495936001703708
-0.025164854203199624
0.06173309207083649
-0.07849431637943649
-0.011996395895096759
0.012345675430128752
0.07537773847441985
0.07655795164400454
-0.04280478256418818
-0.06437531458727248
0.06985228973461403
-0.17100293999028995
-0.08239665520200741
-0.00901111058361757
-0.1075153332358823
0.18785237658147433
-0.09138661379008155
-0.08318079642644834
-0.10538178258519036
-0.08027338172339105
-0.1770085112703057
-0.009072845890424883
0.0019200920369959098
-0.020664113226685307
0.026928983897330495
-0.029322225248660745
-0.09314889218829661
-0.0918366654719236
0.028266361878276747
-0.010969842958418722
-0.03857135583830657
0.07472043024403836
-0.012496064225593968
-0.14010304791607167
0.22885390396453956
0.25202446576076676
0.07705360313847093
0.013364716752985324
-0.06151554983888146
-0.16910822201987163
-0.04085024901937325
0.03776735130026322
0.05508164483340853
-0.1009225640538366
-0.06354763606605605
0.032457353691661125
0.07732261131682235
0.06646765289244587
-0.029910694684916247
-0.07475487634997634
-0.04784480574720623
0.037216433179446805
-0.26784847015848473
-0.045551867387938524
0.04206121009196797
0.10101710938032947
-0.19418971750959685
-0.08759839125351948
0.032945415669657245
-0.11343585158302188
-0.09533234036827504
-0.134999998156055
0.017719682656196542
0.02473477224599541
-0.019027312283074287
-0.1521984712167506
-0.021757656380975016
0.11961654966931952
-0.05926278680890678
3.601439239824197E-4
-0.10019714565437679
0.1780311849334816
0.00878564229403874
0.0952971510127609
-0.028879270514107727
0.020617978957779334
-0.09188508445995947
0.09893696619745444
-0.09286630678309624
-0.06145125010047589
0.05546792885903327
0.35712049994890743
-0.11460064612690964
0.025810301310462178
-0.029682543670210622
-0.11333792051195167
-0.024933336919430324
-0.03257998674952856
0.024505948682259172
-0.08708130405758978
0.1862612698441508
-0.13009628225632983
-0.0683009621766845
0.07252993339739659
0.0980850021632359
0.07618984409331932
-0.15916368117300383
-0.11980255490521316
-0.06396948984361041
-0.05798740377116213
0.11338473821026579
0.07644551584307849
0.006473741168851652
-0.016482935487440942
-0.03463309798463998
-0.02015098772389274
-0.2679119818530485
-0.16914398432842542
0.08078377557278428
-0.13155828013138646
-0.04828683566906663
-0.07390683427919982
0.02184538928226622
-0.06711556424255337
-0.11431335561849185
0.042450592498012966
-0.05705581726560241
0.12673794242367264
-0.06863817926094708
0.1531651825276647
-0.02475296234772349
-0.21502442282200235
-0.11956620246295963
-0.06209729934473483
0.002351371933259754
-0.08948689988611991
-0.03979189199594303
0.015949756473681017
-0.09971329642795042
-0.008330255764094277
0.0016176326089206302
-0.21884684180687994
0.02528656592148219
0.09903288795853546
-0.016366053974632137
0.15580602851387612
0.09374479208459023
0.045024759671748994
-0.036525520767745324
0.017702444013530546
-0.03908890405448853
-0.21556603062482768
-0.019070735796574603
0.011018126298514567
0.061210376754415825
-0.041414302870756835
-0.05559805524586112
-0.12197617907742911
-0.04656499934346807
-0.021065350610619805
0.20811056905138248
-0.1467769722951249
0.078714129123554
0.11856042340758112
-5.232896305167353E-4
-0.08545548786037875
0.015469029057050575
-0.13910948271600004
0.04210210748027843
0.027951127982797662
0.2814709247182761
-0.0726001176987783
-0.03888839703714048
0.11773363298494174
0.01659151357065
-0.09668937473504854
-0.1499615540921114
-0.12456261330884784
0.07248921941866728
0.018972218002711747
0.11388197769677105
0.04316148625800913
-0.10955776246829589
0.028634235098191532
0.033636289348344645
0.045020253576892745
0.2805763563264303
-0.013098368560529232
-0.008985535237484174
0.03816923780818629
-0.006380706149564636
-0.01744130109725279
0.04371534828361769
-0.09644939739572035
0.009592874395994605
-0.02576786092189536
0.06628810284577066
0.2140193305897907
-0.11302864739121753
0.07879297965299185
-0.10867050402248751
-0.03967705314288204
-0.08762821632410182
0.08590558376672244
-0.08193109446383977
-0.15631413194958835
0.11375622523359354
-0.22531042117970337
0.01940913577244056
0.16042431261728368
0.004924500012138073
-0.15490001647973758
0.08527855644222679
-0.1290964682566844
0.19140690938867902
-0.012965951335001039
0.07053713286824445
-0.09048552103150442
0.0949661753717274
-0.04237268701656164
0.11832604916003123
0.08423969269231368
0.07306792578110098
-0.03137812345342461
0.03022503498792883
-0.04281796012969147
0.03247847004745942
0.08697866811721891
-0.20536226412228642
0.03361918412450073
-0.04743998265103114
-0.22786611221658826
-0.058165171574891865
0.05609455019935694
0.020524277783876898
-0.022067568800573905
0.11967534713176475
0.06098691746738452
0.24938861880850982
0.1095216450956898
0.10063212379968323
0.0027600318822885803
-0.09795235133048998
0.019703207936684647
-0.10344792073223197
0.028030549294760433
-0.05093724767895511
0.02070819336712393
0.138981081925056
-0.11157790271900665
-0.009738757275252793
-0.028134509415450887
0.062159068737354245
0.0758723309134824
-0.0420458005857256
-0.09427497398988963
-0.015144044808643585
0.08288681962003469
0.06864829270948034
-0.19709507478712332
-0.014535587232253115
0.07482673389843426
0.06421086118141836
-0.06532990298968652
-0.07730874456320908
-0.12892034375424116
-0.054327224560037336
-0.02540534544671824
-0.09807792353750393
0.019831395307645633
3.860153964265727E-4
-0.050874989532556196
0.13412335490326996
-0.018642403213595237
-0.05748682277830114
-0.09424780510150943
0.11202051478400661
0.03952538340616761
-0.149612774123272
-0.029509087976016226
0.07966996247102756
0.021501884965947567
-0.10141444555978606
-0.037840217783144725
0.12362579675148014
-0.10811863970483025
0.08985503712673454
-0.037131603773225594
0.003296395932027924
0.1807206454374074
-0.08581606063183694
0.08003611742880497
0.06911883555124355
-0.003810611747023092
0.057380172556965786
0.07033937114504489
-0.08767320486678933
0.13649254595373203
0.023417701793518902
-0.08319785487538728
0.03551001270116704
0.029770137687418805
0.1660511011108494
-0.03227615491788487
0.12440325305479004
0.026152065028679176
0.09624373308541397
-0.05616142845970517
-0.030134522791975423
-0.06558719557534948
-0.1435258995536213
-0.1445365835221981
-0.03387028492195739
0.1020350644310384
-0.02346476559477442
-0.10643160305861481
-0.0869481105051659
0.009858833156082596
-0.0868396503314259
-0.1950213248679342
0.03432968240667172
-0.006151427224794949
-0.10260452899535726
0.038289695701303465
0.04715003798747527
0.12298219266726133
0.11514078820324093
-0.15422600340513054
0.036223131425020656
-0.04477859222922709
0.10349561809713848
0.029795771821592605
-0.17772370726972775
0.06816827919510508
0.016018289555960432
0.0700296141794058
-0.08780049218131945
-0.003350363201955844
0.149849355410997
0.00518496314427597
0.06052994338549353
0.05648454974912988
0.0029189661896182467
-0.008729754611809087
-0.0753054258453457
-0.035136470569270536
0.05589126502729937
-0.04049777964249142
0.004740869885827927
0.1388173352057726
-0.10061993224528151
0.014251231661960849
-0.027780186628753582
0.012755612861020657
-0.015024558137984936
0.023590421551385708
-0.059243759352941
-0.030612844971222422
-0.12901026516809103
-0.12519087693239195
-0.04337933551780708
0.18014615191231004
0.03157485650748279
