0.025870382221909533
0.3599450280494958
0.06540618816697144
0.1062169023978798
-0.0455923423792122
-0.22531535138006098
-0.10311192238266614
0.03147413029716358
0.02644713002626724
0.10449623919700664
-0.07125392125060413
-0.15137194966609793
0.10164320456522208
9.978546595831375E-4
0.09281245233221892
0.020857731072316796
-0.04230449689316192
-0.09961155208363107
-0.11636211808088145
0.06014667645387413
-0.07078892606463845
-0.06610420450316408
-0.035702441575211116
0.06104203812752579
0.020962914789288287
0.13300257895073384
0.03132713429746301
0.03327746052323215
-0.17689669460627394
-0.021538741327517364
0.16670177655819451
0.02708510058825966
-0.17064270796847716
-0.015441913135781143
-8.472845404583762E-4
0.021725544136684902
-0.14372766416076174
-0.011467089395486225
-0.053420535271428
-0.08213869690875132
0.2574827667782474
-0.04225717572579932
0.16332071955137756
0.10471938753389097
0.0871831987768715
-0.12763351292724207
-0.13823505580481912
0.009431038596826914
0.01329240341639382
-0.02825210349003367
-0.01844266514708578
0.021496519051165675
0.08982448268757208
-0.04978017466289794
-0.19589059419436797
0.1042977204526132
-0.0636607207070581
0.17901502243471515
-0.0049857820926227266
-0.020563395118610654
-0.07284545047561727
0.21319950934754792
0.04938427788555621
0.07426001968649862
0.23410401458611155
-0.18013133973593792
-0.059586997152269235
-0.10667412509616805
-9.928469349925802E-4
0.038507775663434524
-0.02345389340530545
0.07056838314277616
0.08439033560717832
-0.030037147940149486
-0.02786220256897415
0.09651206859412068
-0.06358907463318542
-0.04358175241770301
-0.13715013618765706
-0.025104772992285113
-0.005789442696650344
-0.30453009263185526
-0.004893902566833793
-0.02323553823951019
0.034202256436151796
-0.14308446661040003
0.14263869101956195
0.29469628280875965
-0.019904919172114656
0.10666789134988126
0.0439317469188524
-0.25857926333232195
0.04845797074083291
0.12612955428670214
-0.14510777857132087
0.09448477431532115
0.1416422995326587
0.07619452651517161
-0.02508873712801868
-0.02716117205273115
-0.07412558207202159
0.10771343377298465
0.05488659725126699
0.24047696577347283
0.18258028586952177
0.015315364430229765
0.10026192511636614
0.13362999594147806
-0.11348629628296969
-0.004043040224598973
0.012257016739008612
-0.2904949469681338
0.05256819311634378
-0.01230376891014937
0.04240850317645023
-0.09043393050187575
0.008426260972222047
-0.10325770253147408
0.1864531352935674
-0.13671232550814616
-0.12363615918760171
-0.08713943382757727
0.0031077279418040642
0.11579987837282499
0.037173898890076953
0.009565207256275278
0.052147809562632125
-0.1313850293007548
0.14957542568740967
0.1667025848919126
0.16564964013351882
-0.049522069152989415
-0.035526526172778225
0.12676094184114328
-0.007924392001268217
-0.14806204243904794
-0.15397031227435065
0.1449132968453804
-0.017561718129033538
-0.06583728577943855
-0.4106165620915438
0.009312952245960057
-0.004389162444325204
-0.09674716909711178
0.1025527252934755
0.0709165527763846
-0.12467933263297903
0.12383541667218273
0.2898393874630668
0.06586748615513605
0.5106350062102426
-0.03274323011409883
-0.1707042543281463
0.1642445627875914
-0.13433464302917192
0.07306157119760236
-0.0424578889342948
-0.05281905063567732
0.12188307478588707
0.05898797524556958
0.113372999563694
0.018307169882096446
-0.06892393303925835
0.024787942230092633
0.07549165176027323
-0.09467750411892603
-0.06104319296387162
0.07612405419229704
-0.07986083648567066
-0.07901409640832704
0.16454507220526562
0.05807039410577131
-0.18883258086761162
0.03141667079198731
0.047326524527983374
-0.06203693830470455
-0.09183441046535198
-0.15398029130856983
-0.2091090905314181
-0.19138937936057976
0.057306668730226204
-0.08658076818393023
-0.0010900281377296379
0.05813227268282663
0.15857058909841554
-0.043723579295669
0.20319849673273113
0.1108015494028269
-0.2278068785525135
-0.20187951263906495
0.15060041558408951
-0.1387489109251331
-0.1243065253094127
0.22429037623425602
0.07862723785979564
-0.02757712763273583
0.17716102099641645
-0.052985291862244065
0.03994205709109597
-0.1397848881369112
0.24798469661726166
0.07184531068284701
0.0903479834746657
0.03482809641013531
-0.0320419762446235
-0.0076875422847560975
0.0014783014900557195
0.22392914028758437
-0.019168936202657062
-0.1768891220336224
-0.08423524574553486
-0.09087855821282716
-0.03984727937985254
0.14302366347967138
-0.17153919074608195
0.005721619643593804
-0.11171488555556483
0.02326735533257196
0.21053946068433405
-0.13504377408061302
0.37001734028309524
0.06837124059586358
-0.08119127232206733
0.14386039404094483
0.1531553032408009
0.1583629137033615
0.10019468130808584
0.19926520657461766
-0.08692025196886818
0.05796731064632166
0.034822151291619446
0.199222065015416
0.12552457453989466
0.08142988415327987
0.0097014307432928
0.06482273050830673
-0.17198808438048277
-0.016346186883468825
0.06247784331978003
0.10883649657421907
-0.051339620364896116
-0.05843850317492311
-0.10479997273725358
-0.01615271200562972
-0.09017661838441533
-0.030471887171250385
-0.17467177441271015
-0.0778110791247574
-0.17429011994351726
-0.11287300478533584
0.01689413741818807
-0.062029588030872496
0.0063851957671981555
0.0603848104770309
-0.10524642628238867
-0.015839979242751795
0.03149993389929567
0.07465754412151784
-0.009525473874294907
0.16029014828078664
0.1475968338006144
0.12159628886103
0.034325391461670136
-0.13082662015517732
-0.1134043081133275
-0.11852676413781947
-0.005319373591946509
0.09844103524037254
0.10333157963083138
0.23686943281491527
0.09250171694176818
0.05095810064570394
-0.06933977830647262
-0.0038810133352782904
-0.05002172895734448
-0.07208155887807227
0.05779152940228721
0.14554445253831091
0.11742005324120541
-0.07143624012019532
0.05435813529595228
-0.02517788485543823
-0.10797557169433096
0.030465663715119877
-0.0968340484006723
-0.008644696909568102
0.042481465931864464
0.12754490095179527
-0.3723039216948709
-0.1614891352046941
-0.002735609887298318
0.08319893792191914
0.1567524266685251
-0.10500126825260514
-0.016265452050362707
0.009411760554308465
0.1302807120240779
-0.14791250444988283
-0.034177119414628115
-0.011063836050445267
-0.304352917369263
0.09430905067417442
0.14340526497962305
-0.08755586800988485
-0.03195275005088624
0.1505357767896347
0.12953114377397
-0.040095550766162266
-0.07870044610156289
0.08316841791342378
-0.01373521499699372
0.09824431136060147
0.06201462760108935
0.33292410261170186
-0.10845238052927778
0.07175699919831326
-0.11586940822582863
-0.005612154894892137
0.014993094786022343
0.120924021326216
-0.17284126495525143
0.26429053286130366
-0.013116485445209249
0.05327803507270683
-0.17825019667969086
-0.11397185114564493
0.2739028515697317
-0.024548000518439028
-0.010953202179304625
0.4308177589980373
-0.04809207059785906
0.10686117449548446
0.04681331358545988
-0.04185972602189829
-0.20142297072878085
0.11921941079925528
-0.11479862329461227
0.21316752436487205
-0.17036560126958472
0.04916583692452882
0.09778788685347128
-0.12214197959055788
0.011383424163997909
-0.07178465272275054
0.15570784963410159
0.04068979208999153
0.10525234149073005
0.0705152962089321
-0.1470894671660103
-0.17818513744399905
0.04009850563868597
0.2786246671643002
0.2637686329307134
0.1376587220382217
-0.24494681538562163
-0.10033709944039315
0.15169881339465027
-0.17905344757865244
-0.021718875464031992
-0.05707033757618438
-0.04863185204084089
0.029469810890683387
0.0035874119301727483
0.06565414442753498
0.11823817168916176
0.021000161410420538
-0.0386180424572936
0.13294836026544082
0.18640066732509605
-0.1906722797162212
-0.1219336378268475
0.04513222467235313
-0.1028250265400446
0.4058461189833934
0.13546497930948312
0.003077577426933805
-0.2009007950983405
0.07716603638992546
0.017958409478967322
0.2545385736471663
-0.2107730437245598
-0.04510731806973606
0.0495107187616198
-0.008575971413206911
0.06732780921480085
0.07529658971178332
-0.004001799794676259
-0.05530919008179183
0.12936709227500132
-0.06320397695836757
0.007604000374294891
-0.002663108127158288
0.2222305886197893
0.17691646562040805
-0.1096845352936551
0.08472544383751475
-0.0766346245314713
-0.1966024350672575
0.1016484631559119
-0.0021225743150672938
-0.16594460800104016
0.0866452167587296
-0.09123153799923286
0.0520675228162235
-0.020377017207141298
-0.568550834113963
0.1722516487859253
0.03469644317628731
-0.0809912143103029
-0.1391130347230376
0.0474434632649267
-0.26167119129568117
-0.0024600659929199797
0.050276111361357914
0.08822465142932778
0.11588535884073588
0.016251359111299643
-0.007106577979233655
0.07177930143793625
-0.025919392085271824
-0.10172722105429872
-0.4011429685335268
0.007615865733772487
-0.14731724590055828
0.27307098501724514
-0.009772438019782358
0.06100306591354929
-0.026196024574061713
-0.033473374439204444
0.12497137244326811
-0.1450230594317608
-0.025568749408820646
-0.017871908610746258
9.277658126787105E-4
0.019720021885970343
0.17500377871817702
-0.03980835600583091
0.5910737685906602
-0.07515248668597742
-0.08465751509167355
-0.02399185783950168
0.7463956352396981
0.18681818796577784
0.07512766465217778
0.18345520143936683
0.16261247647570548
-0.12708086730995896
0.09183597171129118
0.01103089165802918
0.06348165642105696
-0.11687497822123596
-0.05687018694860872
0.1612825412380399
-0.025917322443645384
0.19542050537866879
0.016265455934785275
-0.2380552568990114
0.1246130314357892
-0.044886395284914136
-0.1730852607012207
0.23886289516943315
-0.026008480069943628
-0.031996503309255964
0.009276266519422621
0.11124959000171139
-0.08874642555748724
-0.0617812072866815
-0.05442293569906743
-0.23994636416686857
-0.04696425789804179
-0.0890226132529507
-0.0032133803866061794
-0.18917507080425988
-0.2972060329400248
0.22662838096228682
0.10206023158309804
0.18875703635836683
-0.007808766598396745
-0.053360720685007024
-0.14714975727577623
-0.47456738694534684
0.1209142183852118
-0.04461381236971827
0.14923944729834882
-0.14878517510116368
-0.022230760798725324
-0.09813219531648196
0.003921745555045014
0.00781762503704811
-0.08684382900049417
-0.046467541945398476
-0.09014856374259933
-0.27547663084886437
-0.028582940852059265
-0.024871894200441353
-0.0314758707459764
-0.12722734238580227
0.18880216043581327
-0.09589499086435366
0.07202487654274092
-0.03952996304783185
-0.13509406859630269
0.03913599946450484
0.042231554733810704
-0.04548368782430696
-0.11955440593301075
-0.013809556131335537
0.08264201354670511
0.08838291642914155
0.014819973328182034
-0.009100492690576736
0.1974895449491567
-0.12387197960159985
0.1443209463389015
0.03902426604779409
0.2350370974249259
0.3480485224725603
-0.09944446482058367
0.01750368219271578
-0.4123580309955753
-0.04548698024869206
-0.02150935624584673
0.14516470449296956
0.0746293959945571
0.09215121327033832
0.34291536088303326
-0.21955114726444097
-0.14709807394675137
-0.3455251008366716
0.04170758335009663
0.15070106563388502
0.1539387357623584
0.07894614967896652
-0.038223665461358365
0.04764984830884038
-0.2092828578672444
-0.12215061744407561
-0.1082017935224163
-0.060632545282206296
-0.1945196293364512
-0.055098859699781885
-0.1225386398510749
0.05646994627605793
-0.03923156188434343
0.2773966162643257
-0.011063745609389025
0.029099477550348862
-0.12772802469898853
-0.1095457652785263
0.08101854793365912
0.08257643653333269
-0.11559732223263038
0.3668370131158277
-0.036571120821542395
0.16209948728111218
-0.11542680378523473
0.04850348085032563
-0.1551245471579406
0.061460952806722154
-0.2551307255843789
-0.1592645724535385
-0.09698373824644967
0.12311054474399533
0.0592496876381865
0.08830935807943296
0.061790946767684665
0.023898020294737102
0.1610274959671243
-0.011840982938880118
0.0635475833895239
-0.03619863896867357
0.07691923129683992
0.03251148732981523
-0.9220242101088741
0.05287219787352218
0.04129513656051158
0.03124308265431502
-0.10029521143103463
0.06385319979542309
-0.16708661063044167
0.1380914050446071
0.04261995322400761
-0.2066428375027898
0.024946566778810058
0.01820598754000259
-0.005429636046714873
0.01496465706293308
-0.04585187737362545
-0.08920426353866975
-0.03138970157394324
-0.08801604600002683
0.21676009559231052
-0.06871855907795868
0.109609526805448
-0.18590603819527782
0.036145861177569384
0.1856322210017017
-0.004527305567451401
-0.06334715765997365
0.014458870723222134
0.15338661301208883
-0.03374456711332992
-0.07317295781913791
-0.1039507536375647
-0.043289179701412196
0.13612764394831392
0.16127281745784558
-0.1238885689020915
0.008871125950556565
0.0699531085955063
-0.10303886989141642
0.19440188812482193
-0.11846828928204135
0.09274736442020036
-0.058396710975197046
0.007825584964623267
-0.016601651736846176
0.011006431306775996
0.0680202852648363
-0.0950391445144439
-0.1984718619969521
-0.08396925274646086
-0.07982432727057683
0.14780935522370192
0.06450919256807344
0.030912282841859488
0.0853538933341099
-0.04201812969080478
-0.10990551527129974
0.06768207183622095
-0.12255086427403485
-0.11832860235489003
0.03390321744900159
0.062181630460182234
-0.09048044061444802
0.10690178700010015
0.2196323396576979
0.17481930020664133
-0.14160374582414456
0.07106481618992389
-0.14749584771897786
-0.27808710053990937
-0.24450647924414717
-0.08294906040360742
0.2335735326541583
0.06589007902868502
0.02691047905685847
-0.19650724216273707
-0.03308633014509921
0.10800037881958738
-0.2751033177707094
0.2272823189629599
-0.18113195134079244
-0.13803480622996234
-0.022565848133987303
0.08693556585019926
0.10948774446354587
-0.36450050019922753
0.16209224900926464
0.06092113722113334
-0.08621125010151047
0.022072169451604333
0.2488467333773014
-0.060726827836172476
-0.11339954802878392
0.08721347472929433
-0.05518204528005349
0.05541435853462416
0.005531085025421564
0.07306123330999617
0.27758911200389985
0.049483179430805956
9.806934891966445E-4
-0.22951546718248617
-0.07968709024738965
-0.06554766699373193
0.07080468098018444
0.18067574965875666
0.3322345311520123
-0.25293997453290606
-0.06189980908422786
-0.08508896664118439
0.061020837826753646
0.08876116277334031
0.13483987611127102
-0.047384769553512104
-0.13570639708680898
0.0013179480590353593
0.11303035866686315
-0.020119010047762113
-0.02046648729543512
0.0510324067075717
0.18192177621991196
0.12134011538322168
-0.1297778244224104
-0.06486131728244447
0.10626212358499873
0.3817998083978626
-0.0625439234028812
-0.0840466521775785
-0.0667568096221999
-0.22091374857408638
-0.13644476195796862
0.08473678986740779
0.011420758090368785
0.1950838571154274
0.14149274511292886
-0.11245746372199325
0.08806519084336945
0.23710875666162687
-0.17151444827016857
0.1626960604465073
0.1528995401792612
-0.15921707027157522
0.19086330852545436
0.06779212099542982
-0.15036809597869305
-0.01930529319692187
0.009697433166814321
0.08932509257572978
-0.15360172369353647
0.1964956052357478
0.021947261703849405
0.1526324430573144
-0.046752939152393196
-0.045371657346296466
0.10226630442462983
0.03569938238036778
0.02478750973694392
0.05840769941694509
0.1522092385687937
-0.09129862717777087
-0.005050751099271125
-0.057625264563775376
-0.11662826667808328
-0.15194508252516084
-0.21347306455966317
0.05203109012559834
0.2048081724992909
-0.0013338324685025216
0.08779607579727589
-0.157978239500303
-0.06746292843311028
-0.0707139844026194
0.25423163120386155
-0.17301157579905804
0.019971706794113277
0.15071739739394488
-0.08429444292323819
0.013855517774331803
-0.09136336749185285
-0.06472908398304945
0.013263761720680192
0.08342359391105433
0.060080480471588246
-0.027360213264211238
0.15386542522275182
-0.20325449344684585
-0.01775836639545916
0.07684974797363994
-0.08514458147396808
0.03199412517840804
0.20514540475954318
0.47314180018738244
0.2378116143259025
0.029064979217900886
-0.06746780600209487
-0.16047149441136208
-0.18554859520271547
0.03063711202419276
-0.10516970612186632
-0.036839332490433176
0.04743871447420228
0.012872810524826594
0.050550929738536685
-0.11379553901029592
-0.13839946195184458
0.10079479181795174
-0.2115725608119353
0.11679437669442767
0.059126114534329366
0.03475366277099445
0.260760474545353
-0.05085681127065381
-0.02526235600977133
0.08486865277896175
-0.180530235987003
0.11221023390819404
-0.013874878731123724
-0.014069829521976128
0.054803169910091876
0.01586927999641321
-0.099298573385725
-0.04783613739161898
0.027431501429385885
-0.011369192255059835
-0.14820295861946178
-0.04598696545853981
-0.21518445262202746
-0.03493988332787438
0.017469335554532443
-0.13511734488931298
0.02674070462407882
0.009752430032390243
0.2474712847792905
-0.07903678358830935
-0.07830331722280123
-0.20328171174589463
-0.02877033693771967
-0.004166899358048065
0.08110236316817804
0.01998590526311825
-0.05139067569090866
-0.028300834953418064
-0.2027290536846897
0.30555440656262417
0.348499282133701
-0.10605648489614083
-0.1159854946180091
0.16723487795128594
0.06590712309028655
0.038545039261659086
0.09580218430818148
0.08140842686493344
0.03637723972380394
0.12142232942006344
0.06502895422865727
0.24564154722299442
-0.12068065300468282
-0.009406341895073996
0.11215104599571815
-0.06119329263614259
0.2972224166347118
-0.10912450260518773
0.02615912893243591
0.08090544089500906
-0.01900844807775509
-0.0867781917649769
-0.042908023680374476
-0.16025184806007864
0.00552261470187611
-0.005866152729165741
0.011177363468485852
-0.12908522554003715
-0.033277940030378955
-0.08050034370895981
-0.08348430589024451
0.0015046515833188733
-0.22821781055628623
-0.00683682142224674
-0.10578106800390094
0.0639472843221101
-0.17596865906469072
-0.0036719616029858293
0.15404643472678395
-0.011667188589301901
-2.8322557949315985E-4
0.4654803755312504
-0.02100099888392687
-0.05685001569385684
-0.016312825162634225
0.17051432646490283
-0.05259944404761516
-0.06819291317253535
0.022665524198912913
-0.17928598065269452
0.033749478719991025
0.13258478565465215
-0.10053033944509675
0.07977022925953509
-0.008532386272324685
0.141057259803129
-0.0909192521150865
0.10342804644858744
-0.08982243297899514
0.004534244152081333
-0.1933979270445475
-0.059800162538807405
-0.11273801563016972
0.2614116745721928
-0.15482889112369405
-0.22799981393143215
0.12976454852071595
-0.012098051515428435
-0.08621597529403519
0.5547096591265395
-0.052569546515352034
0.019270112050857928
0.18857694445394588
-0.21412485878929288
-0.08408130817955065
-0.01728732197860991
-0.1253780123721195
-0.10662414755387703
0.04750299121269549
-0.06397753705034948
-0.07978979209820986
0.026813576095665818
0.08094646045806043
0.04467030540100421
-0.02523156881030127
0.1967997773960729
0.0946099054170538
0.167252145369538
0.0819417304359627
0.054502726295926694
0.001060066018148868
0.10717137997712525
0.15607884165883887
-0.10809231928772021
-0.08390303975043753
-0.20470176619567745
-0.1837922936215709
-0.2543699839665821
-0.07783505897101464
0.14274885496200082
-0.15104851893757057
-0.00862840479224085
0.011881010604454843
0.06666532449487511
-0.13316897448535214
0.004465380832377255
-0.003651415638077894
-0.05107374513595664
-0.15113714719535656
0.18587096267228959
-0.06489969069019544
-0.40867842707183094
-4.3179421608180446E-4
0.057349525147351955
-0.2706714061933774
0.07050715523206404
-0.0021363948286392334
0.05687668633523835
0.004063190517881343
-0.09193697600068196
-0.0217614241737289
0.01010612977719591
-0.04262655373324263
0.058679060883707376
-0.3423628726158156
0.01888570543615901
-0.1609119427313374
-0.06364824147195831
0.18577590763990337
0.03782889600618805
-0.012397232051180054
-0.008667597036212771
0.09022044277581925
0.1602035819744208
0.11086483780484224
-0.18980630389729589
-0.060248191505312305
-0.01692915455733429
-0.08725654337886514
0.07324149042907695
0.1180693563322264
0.15465416083675743
-0.0073471490290854796
-0.11329824469674607
0.31392831596664406
0.08503563245243567
0.09219082022527225
-0.029896951852422866
-0.012222885606802012
0.1674437084184972
-0.07091710487050183
-0.11111112771109095
-0.08196557876294863
0.18356193674599108
0.04003073686747546
-0.1971881972601764
0.12384726486241
-0.002373981050094999
-0.1554922421754551
0.10736950925134023
-0.026605937837575616
0.03833032437068354
0.03699371257140376
0.032251992984474294
0.023695979929587087
0.07832679869864764
-0.17616816170426566
-0.026975468877424857
-0.04907620622014499
-0.01943341102367363
0.07882847994650535
0.11401201820114058
-0.03944434025187653
0.08059029028531148
0.1495789060022894
-0.629939981740821
-0.051524251758441844
-0.04892762567013629
-0.1535456264286517
-0.024284545369680027
0.004297641477120627
-0.08365467921376316
0.012784149025666894
0.07140767851597765
-0.23727075340087792
-0.05330680167919037
-0.07765772510924765
0.05611798517206148
-0.10806846345544084
0.026019043132303285
-0.04702621068731445
-0.2652638916356479
0.07637759022525122
-0.011938552479114628
-0.04076589247687171
0.04782734345925016
0.039717978766838996
-0.2726908746125937
-0.029613717990082365
-0.10273410467840938
0.04687956784180388
0.3421266705785537
0.025651617510520017
-0.10645500787280787
-0.046272434025552756
-0.024910651906458525
0.08765257264501211
7.7540005539109E-4
0.0343637308678437
-0.08866630940594492
0.05695048774002828
0.07931519145676749
0.2271343748041419
0.0818384985762527
0.17779712746846163
0.13031243736327977
-0.030636948181535992
0.06269859169179871
-0.0426908392497161
-0.0829261514880376
-0.10108937293044974
0.12520618867714525
-0.08771080629703085
-0.06726718493737333
0.21190008894659051
0.027058954222586244
-0.04623732990910154
-0.11012506294863482
0.09212797102119828
-0.11973354128444566
0.1661592298755054
-0.03187214757743448
0.0533262733124476
0.1718319470512704
0.016720390376614255
0.15829460092034447
0.04017220766204142
-0.08440333382840803
-0.1158232629806032
-0.06801416830685979
0.013430267035042189
-0.22395335559749732
-0.06516445873001815
0.08344335878527538
0.1190115292750556
-0.10142508528384622
-0.17238713577752174
0.17596147506038445
-0.14959775194070218
0.09080737602887619
-0.22744962899142177
-0.19562991019611622
0.05586202569050475
-0.08244133045959946
-0.13425890690717007
-0.13445409239060604
-0.022524533253035092
0.00781650216347934
-0.09982708882866831
-0.06148591563261242
-0.1446424225057353
0.12396002252558343
-0.005000527982107695
0.0818972136726013
-0.14730558442247524
0.14776518976973513
0.032554999724473954
0.09102728385327645
-0.12115747583628567
-0.016973531941853418
0.006281784413134245
0.033575274076325046
0.07677867365067685
0.023916078053551504
-0.06099182210915936
-0.19270078459241224
0.2565404430555297
-0.09923601715279522
-0.17371442374146834
0.006938941746235175
-0.08715495678502444
-0.06215445334956052
0.08373213042955056
-0.062139152646654386
-0.0157149654407633
-0.03255079504809949
0.15508732817472554
0.44091328821159514
0.05236511328794089
0.10445620074045885
0.11034355426408357
0.12287708272260996
0.12179535367253266
-0.10080195950764237
0.073445622099213
-0.0344831591356594
-0.07411469030809748
0.30174825832502006
-0.14062995820642926
0.24057658872464294
0.03771956407371263
0.2566435848901957
0.12698942815966627
0.07173507051530058
-0.025371850323896578
0.09561146060036776
0.043242847853765656
-0.09499527988430677
0.19990627149736442
-0.2346646155492886
-0.18022842849301268
-0.11159441318862462
0.007895159726818767
-0.08733015995710297
0.033887835751699694
-0.17108378404863414
-0.04349277398483998
0.19622584976940544
-0.34244100683655376
-0.08989628678457762
0.05841572645953903
0.15631106659874716
-0.03177337015823114
3.5132727454162405E-4
-0.0963587766126755
-0.0950565744798111
0.26378960687927017
0.04978226738558429
-0.14458835843647774
-0.026791888627467498
0.040964113899281535
-0.0980767089659073
0.16303245158493448
-0.05916052718279869
0.33058049931004463
0.11297312796922053
-0.1547826943759447
0.20689299945290116
-0.06813791442554801
0.0344381129305007
-0.06916108500023464
0.07551349640848858
-0.10528978512977911
0.004391392354896245
0.18356516581483523
-0.061277699054608156
-0.09759746603603434
0.10215413353166504
-0.14453863533845707
0.035643195434458146
0.13738219454385422
0.15333066709451443
-0.030781607195546623
-0.10221961558324139
-0.11807478275585269
-0.11028753026062109
0.02681307134315088
-0.12021952552162314
-0.11603292512107016
-0.013710124745398181
-0.10248499687896588
-0.13569344403009306
-0.1299503197077735
-0.011761416733566704
-0.037350338775132004
-0.13536223696971528
-0.06859484973816482
-0.005465308186162796
-0.01877398501840265
-0.22454203011489426
0.0037067226429792696
-0.00132966592172315
0.004489603920446186
-0.009586271785026511
-0.11879482360726802
-0.02919395678456544
-0.008763467744122436
-0.16395248911398583
0.10480612463698522
-0.1850313166630693
0.04815638772395363
0.1201464022543794
0.011083506079392725
-0.07635148622528111
-0.17042301166301504
-0.3082629007119327
-0.023548128798597634
0.011225825051570049
0.11317316976920432
0.14104539068809138
-0.0024452608746688975
0.19715097964686243
-0.03110108973918786
-0.06689072732098159
0.00422004483006632
-0.013661293510557422
0.04942570648417131
-0.04843123823335334
0.001112611415334655
-0.08870006893727408
-0.15239673651266922
0.05411486036740648
0.005459656032646129
-0.2881785987450827
0.0018045385136761924
-0.03584860975280382
-0.04341997348223251
0.005102205788979554
-0.2380219582004512
0.09182513547730617
0.047853105176465786
-0.016464534486053804
0.05095614598453436
0.05451219505071377
-0.1710898802791033
0.02684941168366989
-0.18832947413438064
0.02092555030346358
0.4310592154671864
-0.013441338120602355
0.07316256378330044
-0.15779581865000397
0.06938861025482329
0.1348796155610143
0.029045989907338775
0.12363664318446817
-0.0560254749339702
-0.03114544419224402
-0.08546887346977242
0.01152923151447488
0.029534269916519744
0.1427687508937409
0.06535988633392464
-0.2488175315025509
0.020489444160235987
-0.018427943847740262
0.04685061914859727
0.130790050849208
0.23372601351066552
0.14751174481045112
-0.19123941804144193
0.053048655410796106
0.05287618147465525
0.05761080314867011
-2.2681592095639275E-4
0.014476733912130287
-0.07126335725343896
0.16732097007386015
0.17397860895191286
0.2028851610097269
-0.04293958819454353
0.20321131954969465
0.07305610122596207
0.027296862947920667
0.01078914066870272
0.09301018208757778
0.07359762712507464
-0.001277014554225877
0.022690489362185734
0.05017954829247577
-0.09894836334610585
0.034166773269237664
0.21341217229392515
-0.08023972273260664
0.06068704987035556
0.003013205250905653
0.05895744339342385
-0.0037229894953085185
-0.005492279282184473
0.34878239350296825
0.18143084615344357
-0.05895665727357903
0.28924271479791164
-0.24630576849409277
0.20047870409178215
-0.14119738923203556
0.1320460756237573
-0.013120054685973038
-0.08002038351207556
0.08999376275817723
0.01059746437775486
0.023163539972689325
-0.003208342997451867
-0.0768759323471736
-0.16434409023342117
0.27276091340424796
0.011076967472801735
-0.18238321327065912
0.051049410173963194
0.1277862034625249
-0.06885793262889667
0.043877510736353466
-0.19956163593525267
0.33053008165658126
-0.04776214938069538
0.034998032606340046
0.21750823489896337
-0.031755499407389795
0.2265500140805669
-0.0627532803075206
-0.03944783657606547
0.1376662307876205
0.2442493758362035
-0.08379678728892953
0.11226520735633977
0.13579359311140607
0.033469427108543365
-0.04118688238715016
0.03494831981205551
-0.05341533209866642
-0.03986589888218788
-0.25539741351797135
-0.05562030851965394
-0.0031398589047564865
-0.24138239456437788
0.03376893373081486
-0.05781359526588675
0.20450663793104262
-0.2261290717725712
-0.042905974551739105
0.12739779499113024
-0.12993498804327197
-0.07477794441368771
-0.008659925320946605
-0.027757636252115147
-0.024648425752031997
0.10331668175448949
0.09790004611136466
0.429182434919876
-0.07393775920188816
-0.004053393787080641
0.12111716899420391
-0.07874063384571489
0.021074318023115636
0.007506072000002195
0.13678940656005623
0.08497458623770034
-0.009184019092656254
0.0420809840843579
-0.10369930515296832
0.13922957465336802
-0.048326445529378946
-0.2958758860893553
0.07271813970776056
-0.18646300653351985
-0.07087065040425122
-0.09915825422353765
-0.02177174395311668
-0.1923905114825655
0.0366711909525162
-0.07133586184552414
0.10193705543690809
0.22457167376555473
-0.21404885714827948
0.1691566485766636
0.05005750238279777
0.008998351180787074
-0.020748423771206018
0.03947101876977925
-0.07781421852347792
-0.324010722180591
-0.05389552392968088
0.03473409208113245
-0.060636343972558404
-0.09641674601764028
-0.09686181307614816
0.024673552505766784
-0.09853631721631702
-0.01220146306034803
0.06164602542578329
0.03491047909718098
0.013879471594033528
-0.06065644720709758
-0.1972748507134847
-0.11332430053669608
-0.10240658390603405
0.0069913390253757346
-0.010364999534729635
-0.04650096274774662
-0.0298485647763403
-0.10579405180795716
0.18741146309751563
0.06813247883855178
0.06398599064239856
0.009454972876812674
0.007996769994780155
0.039213376306327485
-0.10324422972764842
0.11787059836254041
0.13225655028310748
-0.09647736100699217
-0.12955896027870598
-0.09052455430934228
0.11819977219312688
0.0721695274574147
0.021962095726334598
0.03652486682831336
0.06563425828674103
-0.04420201636586167
-0.0020528165809191234
-0.23549324011717068
-0.2654495926841521
0.08749011283314707
0.12078281949748002
0.04921321110159505
0.24436697037509125
0.08741119255591995
0.2295161147611834
0.1679218582954393
-0.2573458700464692
-0.0024334952016946687
-0.006617283357360517
0.2346290857670908
-0.14483987381851762
-0.1116983835909274
-0.21214970280642587
0.021607435127072833
-0.023222662569156095
-0.09681025711322788
-0.08092455946094032
0.05369439412748096
0.04286984151702702
-0.2368740996020519
0.10952986583352148
0.020383257760768946
0.0353159002994633
-0.046311551509792506
0.1243342206702444
-0.07313653973235126
0.0255368805978667
-0.02957180216914066
0.055133222874112923
-0.09031927851004438
-0.0479599964624411
-0.03601629678958512
0.042583949500181364
0.13642424021702065
-0.22635104030793735
0.2272510797235629
0.15256681174245834
0.09302609338632295
0.10587519847561576
-0.10261438198311829
0.01377061631199894
0.030215727921802573
-0.19944013776975933
-0.11590169255724889
0.028758767907202977
-0.0533536250581785
-0.08297940388441191
-0.002982758704893923
0.1365652882017804
-0.053857806911888725
-0.1781198142481925
-0.18102589467547256
0.030341694779370904
0.11208159978057305
-0.10830159805376721
-0.14739169974352553
-0.04659335486183133
0.1408829695215024
-0.29621041156707517
0.06423067457743845
0.007975198713608153
0.21409168695235686
-0.26656207841718776
-0.11971533652892147
0.22819727889410438
0.1936451313818743
0.3005770323832475
0.07637498688441767
-0.11232897286769376
0.09200189459986612
0.010817289412560556
-0.08082752449625849
0.2779956583689946
0.17803315597276514
-0.1420063807062744
0.08786663534940559
0.21818276266649228
0.021748938647601388
-0.026928440059887607
0.07077004838655249
0.21636766034664928
-0.1472553719348801
-0.0894249298670433
0.05108595045529198
-0.17747714911812548
0.050588311971735675
-0.1303352410205937
0.021446873947500347
0.07353923031969169
0.14414141281222212
0.08007616431635003
-0.0425393033373451
0.09567738078033876
0.13912767305602425
0.15718935167270587
-0.08995329051405475
0.004920129628083414
-0.41437302373340995
-0.046166767563221585
-0.10559025454173152
-0.05426268808807551
-0.10432819306475714
0.03220507537469642
-0.20960487673725947
-0.012736171724898715
-0.01387043940613454
-0.02065206219474353
0.012226104058989863
-0.04468060018956439
-0.09587637224663864
-0.12001913187823507
0.05195008837940551
-0.10009442445330227
-0.39281458899993144
-0.1341074519402359
-0.12027709038027488
-0.12171094905272933
0.05687291531840927
-0.1118875283051806
-0.35504887908489774
0.09213547565705542
-0.23795807945826203
-0.09530460247544843
0.1462319542319241
-0.027978470292696622
-0.04361076800605877
0.013890739621728591
-0.11369541489212859
-0.1951242389875925
-0.01623989052425197
-0.07203696109674697
0.0989304072308898
-0.1485866303220244
-0.154379292262609
0.058215641792510604
0.005298088439833641
0.053453272577584046
-0.04519843083099542
0.05138121087530454
0.1965369355148547
0.04003789047127115
-0.11005524289694801
0.05355008519755046
0.05056082769550771
0.04134814562503769
0.09255044394404566
-0.0761204996730076
-0.1865540116289687
-0.009668164916523343
-0.06907558972182444
0.0611360987744554
-0.12629971950438448
0.06823573347520988
-0.17250975653442038
0.08431166878158905
0.10693827351337842
-0.13775774310620903
-0.09172623169083502
-0.16015848246146058
-0.022310247568902083
0.07024990246211181
-0.03885834308503173
-0.07567930748777249
0.04642486209519522
-0.09167474257464776
-0.0553171775751925
0.11660222851415832
0.08512504329700317
-0.07954601507396726
0.003649873461996172
0.21656639203589745
0.03490839348734402
0.1377651473814428
0.005966414697509997
0.028923347888949357
-0.27689632524850244
0.1407135783615896
0.18610895424315976
0.5118075448408642
-0.04044059845724213
-0.015675084026259917
0.1342448020734247
0.011806121832939744
0.10308933431505701
-0.14587367823569863
-0.0525963115921219
-0.04990584683288179
0.014661158636013905
0.046216127539350255
0.2627539236414969
0.13316050122671255
0.16520480558457643
0.08373036814372393
-0.14670454040926345
-0.174661223213138
0.017849716698232224
-0.12035937122779583
0.19290747272001552
-0.06608051921679747
0.06921322637969463
0.014031407212397758
-0.05674225493954804
-0.18357804105761244
0.10708517045412536
0.0027619550301624714
-0.1219916011062689
0.055820527930063694
-0.2188983088527866
-0.1041469768076099
0.09658999607395603
-0.1100456154610953
-0.30969674320685975
-0.18783284957209584
-0.00987166376239521
0.082595157003373
0.20023140823679564
-0.03336826063555637
-0.07199526169169718
0.001670117573300532
0.1816730365278446
0.07969610894559581
0.08572482485964499
-0.15340157700268833
0.07138711863014008
-0.06306211933267428
-0.1025871102769765
-0.27638379238026606
-0.019807526438165753
0.05261759832503772
0.09586841436591263
-0.11232495471093418
-0.026259227170725433
-0.14797526794342142
-0.12939274672858342
-0.005553980002400956
-0.1782965997975215
0.07883779030875843
0.1665307767531548
-0.12311764051375304
0.0887228244362942
0.08892450628021552
-0.09001182685479976
0.3104316633411438
0.07464056597742226
-0.09831088851157367
-0.3159071419459072
-0.06544739924877682
-0.323533458453547
0.1728125085036329
0.04132152039197737
0.2734143095611314
-0.1926228300538332
-0.050028658175610474
0.05262159735676199
-0.09087026059491563
-0.03287103947964113
-0.15641773863902647
-0.18359494691153722
0.0018382332675003048
-0.1253882341096645
0.1419233324457247
-0.03745773933023794
0.07046568457676146
0.01125281168302442
-0.06272013977880365
0.0845964501628455
0.20844113494846586
-0.13179284325272936
0.06657809780135755
-0.0026247030508286806
-0.09321575361858006
-0.07136738929570416
0.03850473828653344
-0.11473643196539557
-0.09760728087643827
-0.11300059981197808
0.11249091804959775
0.05257247750271979
-0.04301358891167013
-0.07690019399704381
-0.08731209800593602
-0.03563611382830921
0.0522450825685063
0.23681684220514593
-0.1233210952209895
0.14256091086444503
0.0823703566204563
-0.005710520198744354
-0.0875832066470745
0.03102597106733202
-0.05678601667032986
-0.13028124528339585
-0.10822975529043687
-0.0474459521374252
0.12170047653243452
-0.01844722821446585
0.13822369472986668
-0.0764011404661771
0.16346360715991398
-0.02526568892942868
0.2492806468938843
0.07675202710156258
0.3461722774999024
0.2014393456227138
-0.015752133189207866
0.06288242352585535
-0.0013796559917367487
0.07981596778761621
0.036376621359954175
0.030604547612868405
0.06345117313499896
-0.058549399256511536
0.04491545351178169
0.09073211398251112
0.17000057739557767
0.13923395468584607
0.15046119253226636
0.018108314049645753
1.692750997233962E-4
-0.12914935688859824
-0.1279790384812327
0.02852101172123461
-0.06357722889310626
-0.06555048692913149
-0.04547050554018793
0.17665669218072785
-0.047935891881870224
-0.005553982558026863
0.029033107985454353
0.12131776400762133
0.10015131633977117
0.0036044895423501394
0.03057923350667302
-0.08077899602299173
0.01433556519180599
-0.05158651340444048
-0.17825475570440194
0.03838253872258439
0.051261473718812005
0.14122750483816693
0.1048110578100985
4.685026882324219E7
9.271792893237305E7
1.2767985397680664E8
4.736303584921875E8
-4.72767456875E7
-7.772753872460938E7
2.432936243359375E8
-2.13190003671875E7
-9.454865146875E7
-5.077718040625E7
2.212129023203125E8
-2.01460886953125E7
-6.2286122626953125E7
6.256005287890625E7
-1.7240860613916016E8
-2.277575932734375E8
-8.216237963378906E7
-5.202343931933594E7
1.62068740875E8
-1.2139351110449219E8
1.88607178328125E8
-9.677868025390625E7
1.4428306728320312E8
1.1033048128515625E8
6.3881184259375E8
-2.11405315515625E8
2.112590513984375E8
2.802750923066406E8
-2.716683021191406E8
1.1673346260888672E8
5.20209662109375E7
-1.2962225318554688E8
6482189.349609375
3.7908609181640625E7
3588611.3828125
-1.1177043014453125E8
1.5074531135742188E7
8.74057114819336E7
-2.2264138931152344E7
-1.9737830265625E7
-1.4694473916601562E8
2.9948206001171875E8
2.8628567532421875E8
-1.6634603029296875E7
1.599304677734375E7
2.90663836375E8
9.863894671484375E7
-1.02791536015625E7
7.161945569824219E7
-1.399997217866211E8
-1.990222365576172E7
1.2809816080078125E8
5.013292401953125E7
-5.4071819607421875E7
-3.737315102578125E8
7.228984887890625E7
-4.563070941796875E7
-3.4743110720703125E7
9.357084680371094E7
-2.8068408904296875E7
-4.61279271796875E8
-7.44137849453125E7
-1.787352103671875E8
9.3389137453125E7
3574596.001953125
2.369485281591797E8
-6145727.53125
5.916666625830078E7
-1.7414753318652344E8
1.001328863203125E8
-8.857009027148438E7
2.955137798046875E7
-4.794833667138672E7
2.3626174830810547E8
8.647871887866211E7
3.2129747546875E7
-6.2634891869140625E7
-1.1131892677832031E8
-1.2658762351953125E8
-1.632602735703125E8
6.143947956152344E7
-2.033917826953125E8
-4.365984687890625E7
-1.0764459325390625E8
-2.465393389453125E7
-3.6658196052734375E7
-1.0029996752929688E8
-2.26477056890625E8
-3.207701194921875E7
-1434389.5078125
7.77159838984375E7
-1.5895065638671875E8
6.5671987578125E7
-8.849555556982422E7
7.584971595166016E7
-2.4232933486254883E8
-2.428276186953125E8
1.28383521296875E8
1.3005591864257812E8
4.775462527734375E7
-1.9424759955664062E8
-4.6435214591796875E7
-2.3915523474804688E8
9.217939819628906E7
-3.89785774921875E7
-2.405743719375E8
2.9859108994921875E8
-2.5823632874609375E8
7.24411352421875E7
-6.5459378943359375E7
-1.808212154296875E7
-1.050635780625E8
4.8102569400390625E7
-2.4264518274609375E8
1.7399429671875E8
-3.85979656796875E7
-7625832.671875
1.60928704046875E8
1.5736346453125E7
-9.75403743046875E7
-0.05210386753479101
-0.016023386611931412
0.05420530332277911
